encog,BasicNetwork,java,3.1.0,1,1398044608502
[BASIC]
[BASIC:PARAMS]
[BASIC:NETWORK]
beginTraining=0
connectionLimit=0
contextTargetOffset=0,0,0
contextTargetSize=0,0,0
endTraining=2
hasContext=f
inputCount=17
layerCounts=1,11,18
layerFeedCounts=1,10,17
layerContextCount=0,0,0
layerIndex=0,1,12
output=0.4584467352,0.9510393089,0.9857205992,0.258445416,0.1501883,0.0928043935,0.9999993624,0.9999071131,0.9999995984,0.0006081785,0.0009128139,1,1,2,3,1,2,3,5,3,5,4,6,4,2,1,3,2,3,1
outputCount=1
weightIndex=0,11,191
weights=-0.7604638502,1.7940520455,-4.9236942699,-6.4725099945,0.5870992643,-5.5875065367,-5.5256617906,-3.9358516466,-7.7899347125,-7.9476581178,5.9770991444,-6.7777617728,-6.206859331,-6.8486777058,-4.2172976702,-10.8561024708,-10.7324333024,-7.9507707777,-6.036933722,-10.0608937287,-11.8643362491,-6.9446309491,-5.5602277149,-7.2991807911,-10.0453730786,-9.0511738483,-5.3259426659,-7.8547932414,-5.3999193183,0.5029281642,-0.4130612043,-1.1487330615,-0.863812751,0.0401605093,-0.3869121605,0.0561278851,-0.148600954,-0.0985385403,-1.2514598508,-1.2741057882,-1.1381059491,-0.4729640857,-1.0124294033,0.0264105573,0.0273942006,-0.4077856578,-0.282373732,-12.0606588227,-9.7355531478,-11.592343564,-9.8663772589,-17.0633539441,-20.8204146776,-15.8906172174,-10.3015070366,-19.553643053,-22.9868968074,-12.7153574815,-10.8244093003,-11.3209781312,-18.6826897413,-18.1555190326,-11.2840121962,-15.1454697844,-9.5532265544,-13.8270023902,-12.2994641099,-13.7364179731,-12.4480472843,-20.5960491919,-22.1994669787,-18.0879947087,-13.3285485072,-22.5407676469,-28.2597745153,-16.1344230547,-11.9542955372,-14.3391164212,-21.0652706388,-20.6038437774,-12.8539058303,-16.3218885644,-9.3923774283,-1.2139536792,-1.070867919,-0.9569944328,-0.9411137931,-1.4917740619,-1.587764344,-1.223228424,-0.2442970118,-0.7224072636,-1.1789866472,-0.9448230511,-0.8984478992,-0.9112133496,-0.40574299,-1.9007893395,-0.1991358486,-0.1531317057,0.421144692,-14.1449570203,-12.0006715348,-14.0997623792,-11.2255442418,-21.6865183949,-23.2519067935,-17.2492595721,-13.9931561346,-21.7832588864,-26.7046973079,-16.5982550064,-10.4268832238,-13.5775832529,-21.005720959,-19.2623719277,-12.4295599648,-16.7012906606,-9.2127550923,-14.7781620321,-11.6894338364,-16.2995320701,-13.1176105591,-20.7016793171,-24.9120200695,-17.6673146797,-15.9503197167,-20.9414731025,-27.7911297968,-16.3540138588,-11.2086110472,-12.5057998168,-21.4364475951,-19.6925002773,-14.1896383115,-17.3395167176,-11.5442892685,-12.6240713174,-12.952998203,-14.2094376115,-11.3182484732,-22.0846546399,-23.5053753165,-15.8279125348,-10.6540466786,-19.5248484135,-24.3388117924,-12.6778026825,-10.2510831187,-12.6265785632,-20.2386502998,-19.3142167455,-10.7705097813,-14.4275841227,-9.6277706337,-13.668389491,-13.0800154366,-15.7062210658,-10.6936206565,-22.738910919,-22.4564370189,-19.0409763366,-13.306560986,-23.2186379688,-28.0569421487,-15.9568879165,-11.6053411155,-13.3687555202,-21.7512728942,-21.0285432831,-12.2185598436,-17.5362558208,-9.6929812445,-15.3733458404,-12.9398970497,-14.4644606817,-11.6545383503,-22.1701005855,-23.7624005471,-18.780737999,-12.943538228,-23.6505720541,-28.0271416786,-16.5367280074,-11.4309041793,-14.1442963041,-21.1902495285,-20.6462306392,-12.7298239082,-18.0519197035,-11.143755756
biasActivation=0,1,1
[BASIC:ACTIVATION]
"ActivationLinear"
"ActivationSigmoid"
"ActivationLinear"
