encog,BasicNetwork,java,3.1.0,1,1397973895207
[BASIC]
[BASIC:PARAMS]
[BASIC:NETWORK]
beginTraining=0
connectionLimit=0
contextTargetOffset=0,0,0
contextTargetSize=0,0,0
endTraining=2
hasContext=f
inputCount=17
layerCounts=1,18,18
layerFeedCounts=1,17,17
layerContextCount=0,0,0
layerIndex=0,1,19
output=0.0218860191,0.076872546,0.1796870815,0.0339032276,0.1505296971,0.1494167403,0.0620244843,0.1253941621,0.1084088128,0.1298620066,0.0228347003,0.1213355219,0.1595628283,0.0587971526,0.1031306689,0.1320237023,0.0402833074,0.0063677413,1,0.0625,0.0625,0.1875,0.0625,0.125,0.1875,0.25,0.125,0.1875,0.25,0.125,0.25,0.125,0.1875,0.25,0.125,0.25,1
outputCount=1
weightIndex=0,18,324
weights=-0.0628042183,-0.0057897782,-0.0059033063,-0.0208597065,-0.0689809643,0.0084876091,0.0318082206,-0.0103047996,-0.0602978939,-0.010107259,0.0317869949,-0.0549153319,-0.0426750959,0.0160402411,0.0383716537,-0.0050872376,-0.033966435,0.0438337529,0.1196973442,0.2272630257,0.3108944954,-0.0198380615,-0.020922946,0.1626425901,-0.1315729927,-0.0866647184,0.0730972011,0.1825353492,-0.0232189337,0.1343346646,0.2787088534,0.1028368415,0.2933520278,0.0708646836,0.0961964682,-0.2359120026,0.2035776391,-0.0709233491,0.3050484619,0.0412275986,-0.000975474,0.2219204083,0.2689697051,0.3187953561,0.1610488271,0.1452849057,0.1226388344,0.022221879,0.3311329517,0.2870493388,0.157218654,0.2133447552,-0.1526360177,-0.2453821146,0.0192106498,-0.0044862659,0.1662764728,0.3456684346,0.134271952,0.1992648566,0.0313260919,0.0723513643,0.0348175248,-0.0399557558,0.0254547755,0.2070046473,0.0549571108,0.1755926511,0.1973814282,0.0414073001,0.2226792415,-0.2922314409,0.291222673,-0.0430906924,0.144528075,0.283972394,0.2363336821,0.0177291746,0.2697031444,0.0145126039,0.1534251163,0.2994429244,-0.0106668446,0.0710752666,0.1713172177,-0.0260158314,0.1121707429,0.2228423409,-0.1596787515,-0.1632435311,0.192466227,0.3036694617,0.2615206765,0.2471192245,0.2010897944,0.1438185798,0.2570645853,0.0200880562,0.3591884402,0.1565216323,-0.0334774781,0.0664677395,0.2480658983,0.1769709594,0.1579480751,0.1417819137,-0.0640635326,-0.2877473537,-0.036280978,0.2695748247,0.2530550923,0.0262543627,0.2121152111,-0.0070827863,0.1331877221,0.2749939299,0.150389399,0.1567545614,0.2843785433,0.2093169226,0.0194786589,0.0488936671,0.1784937374,0.205074654,0.1890257942,-0.3788478704,0.218394904,-0.0532291359,0.0110294839,0.2051689192,0.0994107838,0.0522494146,0.0175944184,0.2313028611,0.1581128308,0.1513894876,-0.0548196238,0.2514831714,0.2905597908,0.166425753,0.0996343123,0.1870769672,-0.1332745784,-0.1608726323,-0.0322577899,0.2724536341,0.300807984,0.2363062263,-0.03886159,0.1239703844,-0.0083258933,0.3376265891,0.1354690964,0.1011098287,0.2587235667,0.1724401521,0.3484886416,0.2299456342,0.0603760291,0.0690935256,-0.128687285,-0.2401606559,0.0446404755,0.1735038716,0.0716252574,0.05035923,0.0100143107,0.1932287305,0.146904698,-0.0314914025,0.111788809,0.0913475549,-0.0852961852,-0.0326529319,0.1547964092,0.2359102924,0.2825281545,0.0575841998,-0.121397298,-0.1055909894,0.1789277538,0.3172346773,0.3273513803,0.161490872,-0.0015796043,-0.0371252012,-0.0007774121,0.0880945412,-0.0140649996,0.0778474182,0.2783721122,-0.0679174461,0.3134065403,0.068070722,-0.0096141003,-0.0543359482,-0.0377400238,-0.1511959625,0.2989790569,0.2127277263,0.0323523467,0.1107558242,0.354224639,0.142948053,0.0699674341,0.1138233122,0.3888164945,0.2081433238,0.3313669311,0.2486853285,0.12672295,0.2809114223,0.2404755719,0.226522038,0.0911252357,-0.4342612249,0.3149273483,0.166896016,0.2107858697,0.0363178363,0.3258261472,0.1769770506,0.3631984022,0.2498656675,0.1094126713,0.2537539407,0.2040694039,0.1200533141,0.07891378,0.2760499336,0.16940057,0.1734634984,-0.0755163912,-0.3528729302,-0.0339835778,0.1468693944,0.3149692941,0.2641227708,0.0420726893,0.1878342232,-0.028041882,0.2429920937,0.1228713923,0.2426261152,0.2539232662,0.1000881065,0.040332785,0.1287133176,0.1792417185,0.1219604009,0.145374347,-0.353396696,0.2545169584,0.2371868162,0.2409955366,0.3095985516,0.3235321152,-0.1175983663,0.0201926608,-0.0120423936,-0.0258762258,0.161224021,0.2569755042,0.2364642882,0.1953287578,0.018232414,0.1758708785,0.357504478,-0.0996518543,-0.2320579744,0.2288856929,0.2684616663,0.0853636203,0.0456849006,0.3204886863,0.0887691934,0.046959345,0.2237594613,0.3688864311,0.0499241347,0.1056377399,0.3120018181,0.33934848,0.1467657098,0.3171667141,0.1934290631,0.0478146117,-0.3719803312,0.3605801304,0.2563496415,0.3137204766,0.2771021238,0.0573429808,0.2100723836,0.1179749185,0.0434535191,0.088503171,0.3246522619,0.1615705708,0.0693166705,0.3311906006,0.0253662075,0.0845332458,0.0574503511,0.2654412595,-0.4319606661,0.3896646614,0.2291558233,0.3315807481,0.0967104794,0.1630729384,-0.1062993111,-0.14207206,-0.0093578211,0.0954930597,-0.0767525739,0.0657915787,-0.1129806057,-0.0038147655,0.2167031526,0.1909089582,0.3115168988,0.1195677732,-0.199513604
biasActivation=0,1,1
[BASIC:ACTIVATION]
"ActivationTANH"
"ActivationTANH"
"ActivationLinear"
